const float NeuralEfic::threshold = 0.0;
const unsigned NODESVECTOR[]={100,18,1}; 
const float WEIGHTVECTOR[]={-6.640316371921445e-002,5.570316225605666e-002,1.951284106295333e-003,3.556713935068808e-002,-9.291742109225705e-003,2.099427139408987e-002,-1.345418212221697e-002,1.970949073344890e-001,-6.584131345686149e-001,-2.610637112982678e-001,-3.005306607010403e-001,-5.787256759682080e-001,-3.996728876588251e-001,-3.890732479659496e-001,-2.278988143273395e-001,-1.445018782459751e-002,-2.692797356884445e-001,-7.917360373640604e-002,9.110525121343258e-002,-1.487149620981694e-001,1.945155900391407e-001,7.661305587360025e-002,-2.584635003928563e-001,1.256766539779849e-001,-1.605066480532108e-001,1.837344315424008e-001,2.013306514417841e-001,2.186419447361386e-001,1.121103332937938e-001,-6.030183283289969e-003,-7.406360154704142e-002,6.790735780940516e-002,7.652384817460489e-002,-6.225698433233413e-002,1.010432456693032e-001,3.220007435647003e-001,7.483628286342888e-003,6.370844986907637e-002,2.220098417881379e-001,3.244618563901934e-001,3.974320645692848e-002,2.065404434769936e-001,1.299849513144474e-001,2.838390929021192e-001,2.379565517910538e-001,1.876931715355768e-001,1.730056406686051e-001,7.860885945109274e-002,1.398866628425809e-001,1.509317761403450e-001,1.180748031124777e-001,3.541771821934331e-001,2.673244178271879e-001,1.581408951059057e-001,2.975807904412013e-002,2.212662849204939e-001,1.458516806948646e-001,2.470105247003092e-001,2.595650754042206e-001,2.885873781285461e-001,9.675678327823988e-002,2.633747056555306e-001,2.496513799505143e-002,1.721835608174300e-001,2.357997379159260e-001,1.734650373662618e-001,-2.419523446668738e-002,7.003154928694333e-001,-1.811484025728026e-001,5.633463326762783e-001,2.406134868243609e-001,3.479219832540479e-001,-2.222283941061644e-001,2.890559876173307e-002,2.063386273041467e-002,-1.333851155153971e-002,1.677438650186818e-001,4.784147431823045e-002,7.454718077904871e-002,9.784652866303065e-002,-7.284507255575536e-002,-5.581995967019031e-002,2.192008707553743e-001,4.042499506341464e-002,-6.336535381448109e-002,-3.086465459475602e-002,4.719678906594476e-002,-7.896071019494105e-002,2.304966524845420e-001,2.972687367601019e-001,4.957742340760353e-002,1.357067124573431e-001,1.083564237573643e-001,1.040956074711311e-001,4.297112013681602e-002,1.406358651126022e-001,-1.006335904481794e-001,-9.034132621997891e-002,9.787816466800227e-002,8.269680846014542e-002,1.095708896818364e-001,2.515716303628260e-001,-1.261243291012832e-001,-1.058633368712315e-001,3.394492195295709e-003,-6.748563999454180e-002,-1.714741415029321e-001,4.192677641028746e-002,7.030584779796043e-001,6.661364858068847e-001,5.075660410996357e-001,4.756970592043937e-001,3.569259166553660e-001,4.646193720678139e-001,4.246657949375450e-002,-8.056953925561425e-002,4.218763927779820e-001,1.701515800539751e-001,-9.592012227567103e-003,-9.365501617433772e-001,-1.650038608599448e-001,2.006675402051076e-002,2.282969865497057e-002,-2.161732423901817e-001,8.017358404971027e-002,3.871403292167553e-003,-2.817370186502867e-001,-5.076625565095441e-002,8.757506765195700e-002,3.057779280388960e-002,-1.710184744478741e-001,-9.764540405802143e-002,-6.371581878897496e-002,-1.969521089458729e-001,-2.785277177320956e-001,4.425300644642759e-002,-2.463844951299034e-001,-2.588414321337936e-001,-3.469804681536132e-001,-1.978015063533245e-001,-7.436670850661796e-002,-3.974253809654468e-002,-9.427716663957780e-002,1.179386523791727e-001,-2.987384183915200e-001,-3.083996380529309e-001,-8.809826834869422e-001,-3.625853155943895e-001,-3.256933169461935e-002,-1.395661253608033e-001,-3.543628641815673e-001,3.214654606606966e-002,-3.681289751586323e-001,-2.056107419250408e-001,-7.783152399653787e-001,1.438058287397822e-002,-1.044766101852003e+000,2.696428475392254e-001,-1.538259342663531e+000,-2.180416056506655e-001,-2.918371762381468e-001,-1.990630453586467e-001,-3.637931353744542e-001,-5.859668587362389e-001,-9.827204550617724e-001,-1.327423094248586e+000,3.746902722969867e-001,-4.176392349462589e-001,-1.639196518993161e-001,2.601146242967357e-001,-3.557863491650841e-001,1.483763895603615e+002,9.745903434557394e-002,3.763459533044068e-005,2.042637420781110e-002,-1.507407351621578e-001,-1.569761756249295e-001,-2.193730114401827e-001,-1.133388564538610e-001,-2.481861667397593e-001,8.690282292809366e-002,2.238084898986166e-001,9.055114432736468e-002,5.263473313617035e-002,-1.390348067337714e-001,-3.280496404812853e-002,3.450965444043290e-002,-1.184124794202247e-001,-7.219563103926106e-002,1.058867278248408e-002,-1.406271225614641e-002,-2.956372183446341e-002,-1.445067224908772e-001,3.701470769655276e-003,1.771060344013750e-002,-6.811137639047674e-002,-3.801441732563307e-002,8.578795847150117e-002,1.264683985371347e-001,4.244021359797071e-002,2.300893027056603e-002,-6.918478178264052e-002,5.913969915304094e-002,-1.408116406702054e-001,-6.789022493649924e-002,-1.731508688784731e-002,-2.521284627602790e-001,-9.742083441384394e-002,-6.708776813662761e-001,-2.646978208337122e-001,-4.946186019096691e-001,-3.822606111665751e-001,-3.753846179858599e-001,-8.630601343775943e-002,-1.010160017017638e+000,-1.702177235304854e+000,-4.817583080114312e-001,5.712954803223239e-002,7.422841664143780e-001,-1.941444191039443e-001,-3.738182857665603e-002,1.533464622330457e-001,-9.408902228297418e-002,-3.521785628953498e-002,-3.533563375240598e-002,1.222190089927017e-001,2.263877273069629e-001,5.875658243264385e-002,1.235714025716186e-003,-4.365426711057471e-002,2.735874353877038e-001,9.913584925146723e-002,1.007748638758958e-002,2.062032730802303e-001,2.562920628937725e-001,8.231644601361560e-002,-6.482905416801962e-002,2.843360209717739e-001,2.440107540916955e-001,1.772631252560418e-002,6.963109768925563e-002,1.225087892115295e-001,2.936844853606090e-001,-5.240539814492445e-002,1.841352952984617e-002,5.589134786194377e-002,1.374175036113152e-001,2.198682393047720e-001,2.121954692515972e-001,3.411369414685076e-001,4.806169700991728e-001,2.046537657530745e-001,3.346453581603586e-001,-3.590936679033091e-002,-1.856672869398459e-001,1.592760576832196e-001,1.038336789967579e-001,1.703560155988476e-001,6.609894764474870e-002,3.316392799510576e-001,2.315662436191484e-001,1.235556911461433e-001,6.161614293927677e-002,-1.172834876788621e+000,3.241225262048289e-001,4.668876692887962e-002,2.953387959748179e-001,3.657203970346376e-001,6.022719921447455e-001,-6.021626879108506e-002,4.328188133647366e-001,3.720896952735842e-001,2.555814826769756e-003,-1.238818903713892e-001,-1.194061189512819e-001,-2.605247961344470e-002,2.796268529425141e-002,1.798612359811564e-001,3.133058745690459e-001,1.362698637862186e-001,-2.037588446088698e-002,-9.428995450866713e-003,1.916593509786606e-001,8.430889636683332e-002,3.033423974926362e-002,9.124568206557873e-002,-2.588457018134152e-002,3.034603434041419e-002,1.811288772822004e-001,1.085756515914138e-001,1.309651770377061e-001,1.711392833777707e-001,-1.238285448495211e-002,1.092821900003312e-001,5.063399374949374e-002,1.164404247506607e-002,-6.662134189743220e-002,-3.795950453153100e-002,7.160748272361331e-003,-2.327258230357638e-003,-3.730390044328548e-001,-4.286190994307162e-002,-7.307937191082321e-001,3.896522237049794e-001,-8.129923956557772e-002,1.807351516606855e-001,5.727474494857637e-001,-6.864417238084731e-003,-6.060562858368848e-001,-4.270801833628331e-001,-3.600090426620487e-001,4.910064731203953e-002,4.318776085549723e-003,-9.787531897785606e-002,4.473332066484474e-002,1.187998997198595e+000,-2.248355153131628e-001,-1.243960225774007e-001,2.455982719495645e-001,-1.433664935059127e+000,-1.151900389105013e+000,-5.223590760511372e-001,-6.172599601348389e-001,1.415766968515104e-001,-1.174469579412691e-001,4.344780159858703e-001,-1.617223528520034e-001,-1.929634412876800e+000,-9.837832192595687e-001,-1.898199342099989e-002,-1.902834765600717e+000,-1.402731208928893e+000,-1.010208205721253e+000,-2.598341003979220e-001,2.219482098759696e-001,1.343708825887434e-001,-1.722946370341256e-001,1.210587325568508e+000,2.413824310317032e+000,1.203821327414532e-001,-1.955180147052160e+000,-8.624699830595000e+000,-4.318296006235060e-001,-5.196414207816881e+000,5.156114399330305e+000,-2.416749963063689e+001,-7.964499199080506e-001,8.978401663103267e-001,2.864437305987348e+000,-5.377202304004047e+000,-1.142741475100000e+000,2.828952368547020e+000,1.813553562248961e-002,7.249135458887086e-001,-5.783074464833887e+000,2.038671833284746e-001,-4.459347792890831e+000,-3.879419198809420e-001,-1.294244118162888e-001,5.111685235600492e+000,-1.196742745981216e+001,-2.434078232665484e+001,-1.134506424871643e+001,-1.147531307073589e-001,-1.050877142910280e+001,-5.279329455134159e+000,-4.659884311320785e+000,-7.923933529363914e-002,-4.226807136495350e+000,-8.242550827771890e+000,-1.459114011757539e+000,3.199112884114210e+000,-2.486997634916068e-001,-4.823029278965241e-001,-7.076423482878428e-001,9.675830243315603e-002,-4.494670465150474e-001,-1.586035768245776e-001,-6.131689988630467e-001,-1.176263308218455e-001,-2.716853831396638e+000,1.525885700038919e+000,5.685607301971362e-001,-9.451357748691563e-001,2.816124385898304e-001,3.648453629801771e-001,4.393064628842728e-001,4.207026482216170e-001,9.744709695957543e-001,5.080463639537917e-001,5.377343478860415e-001,3.394994954369600e+000,4.864501695750986e-001,1.933133773491796e-001,1.296459229639365e-001,1.748141532888888e+000,2.056677743051969e-001,-2.333083519407720e-002,3.523113644687254e-002,1.761021145184685e+000,3.638490300998484e-001,5.144553177917407e-001,7.877789164936734e-001,-5.213991086605190e-001,-6.700402842141252e-001,-3.869829541778439e-001,-2.736728605938052e-001,-2.756144400496989e-001,6.454487333837928e-001,1.231541730054809e+000,8.190523331210905e-001,1.350557158403329e-001,2.494300970709925e-001,4.913053382650415e-001,-2.684406350188714e-002,-3.738338247955995e-001,-6.035383938408145e-002,-7.018648027220349e-001,-9.322210987205489e-001,-8.381018679443891e-002,-3.980177908279404e-001,-1.085198878752163e+000,-2.266674204821115e-001,-1.400743256291204e-001,-1.231453514969109e-001,-3.740584415674105e-001,-1.045925679967387e+000,5.193402148902168e-001,9.938874996315151e-001,1.743906855549014e+000,4.904312373849448e-001,-6.691753873122323e-001,-1.601837493496198e+000,2.940019842361671e-001,-1.706058105438520e+000,-3.155603208430864e-001,1.741455823185274e+000,-1.268420531467574e+000,-2.800803083517516e-001,-8.491042059511619e-001,-6.201044171031982e-001,-3.105865687208226e-001,-6.315941339361237e-001,-6.207366774352225e-001,4.297397628046241e-001,-7.475508991971311e-001,5.188004721892994e-001,-1.223769294408169e+000,-2.532406086502968e-001,-1.191160413684606e+000,-6.112687819553836e-001,-9.601577126173447e-001,-1.093894446940504e+000,-1.054026937820176e+000,-3.999459677855409e-001,-5.873142696152938e-001,-6.472074350078803e-001,-6.992451041909962e-001,-1.177401416978470e-001,-3.008536213262103e-001,-1.259693394588093e-001,-1.988302319697003e+000,-3.511052063824865e-002,-7.650458395024302e-001,-8.590231613455301e-001,-2.433562653566444e+000,-8.845840931409741e-001,-5.823770894434992e-001,-1.283307669195337e-002,-8.720355136913874e-001,-6.531611256384132e-001,3.718130124875380e-001,1.527295389248598e-001,5.992855223514426e-001,3.958754226930145e-002,-1.912622118855334e-001,1.035431216717974e-002,4.302925598008909e-001,2.171584252043916e-001,-6.694624789529968e-002,1.237810332193712e-001,-2.647790169189655e-001,1.949043550036940e-001,-4.933820950679623e-002,-6.136308682460336e-002,3.005494232423822e-002,-1.078639408093187e-001,4.951313560872413e-002,2.580263578374994e-001,3.673550510956470e-001,3.826189385480566e-001,-1.826503325935222e-002,1.983893440283870e-001,2.161056036970712e-001,2.060175951288185e-001,3.558372080196557e-001,3.884779824657205e-002,8.005508630880677e-002,-9.709830298250895e-002,-1.325352480298371e-001,1.966468430346052e-001,3.931918017878863e-001,3.624830944874909e-001,2.449092566498231e-001,7.667141928176133e-003,2.365339497833448e-001,1.633701839479697e-001,2.291705063234394e-001,-4.099169505153458e-002,-8.578470716026603e-001,-1.667278998597789e+000,-6.130446427363963e-001,-1.293303591024325e+000,-1.245063339432131e-001,1.146995498126846e+000,2.821911174260695e-001,1.248460183235380e+000,9.791240643651555e-002,-4.072423019178175e-001,1.526534921536505e+000,-9.717979056812068e-002,3.156618848568803e-001,8.320062745864225e-001,8.569683973281468e-001,4.488193827408182e-001,1.893591567690554e-001,-3.143897860901527e-002,8.989558493425521e-001,7.600840846359557e-001,4.503807351060071e-001,6.523853211050490e-001,7.422899475965804e-001,4.039470265592390e-001,5.214630422879953e-001,5.798071006069473e-001,1.869047189620988e-001,1.254829291621233e+000,-1.510736713745466e-001,3.101327319561625e-001,3.616743793014390e-001,1.541713805664179e-001,7.901369914162549e-001,6.844612843133238e-001,2.956480635727912e-001,1.562853414314681e-001,7.038975494034112e-001,2.356478490025942e-001,-1.499192544182847e-001,6.730079875450207e-001,1.545710934081801e-001,3.566859280773058e-001,9.488665080512504e-002,-3.657738394231729e-003,5.502485174625693e-002,-1.348250788884055e-001,7.601697740029487e-002,1.669891140328981e-001,1.533128289177662e-001,-6.116501339790095e-001,5.567280398656396e-001,2.436625912701695e-001,1.576644840358582e-001,-8.188998321603520e-002,3.971683297432845e-001,2.738442914516592e-002,-7.269328530557564e-001,4.639024246867906e-001,-8.846493405874897e-001,8.024335231135844e-001,1.798651211032878e-001,-2.693340838069411e-001,5.005761888923448e-001,-4.744883793686461e-002,-2.089903398860267e-001,1.581618780788152e-001,-4.043326313348069e-002,-6.343788926347772e-002,3.936187554683949e-002,-5.234411880208344e-002,1.713038312300299e-002,-3.380278081994962e-001,-2.288994107217779e-001,-2.287073972688986e-001,-1.482449968155925e-001,3.382733185634554e-002,-1.302648426305486e-002,-3.596687618539989e-002,-1.698966909999773e-002,1.003306356207502e-001,7.052715209384473e-002,1.087468508477113e-001,-9.179948361692868e-002,-1.657671044222937e-002,1.481030503085676e-001,3.409354416820748e-002,-2.262000877741632e-002,6.869248528735423e-001,4.929309974341081e-001,4.745698625146825e-001,2.839056701459786e-001,8.662151238939798e-002,2.578588328978987e-001,-8.094472011568659e-001,3.080199032974193e-001,2.439278266024956e-001,4.631637999714934e-002,-6.494097018338388e-001,-2.646713206604138e-001,-6.977140481353973e-001,-4.316253495140093e-001,-3.647688693650023e-001,-1.327402487018721e-001,-3.804174874928328e-001,-1.006095117342360e-002,-2.879456881620092e-001,-7.944145791767776e-002,-6.391555785677940e-001,-1.775910374171518e+000,-1.102271852359871e+000,-7.154041053988731e-002,1.331858197900752e-001,-3.716169862815938e-001,-2.357789450200091e-001,-1.057944071666657e-001,-5.063741422986084e-001,-5.285943835103958e-002,-6.460457541832100e-001,3.443925284990285e-002,2.149636248711876e-001,1.202025740029857e-001,2.340522005382685e-001,2.541007768967624e-001,4.671678276819821e-001,2.024318779528406e-002,-5.315103871315723e-002,-4.094523077524420e-002,-1.043095235033098e+000,-1.624946522941354e+000,-2.996429321939881e-001,2.545161260676035e-001,-1.302061520310791e+000,1.434802620084995e-001,-3.460753266746996e-002,3.265333773469045e-001,4.182299433867001e-001,2.408417068012212e-002,1.548849433850784e-001,-7.202804234713151e-001,-5.050907731350226e+000,-6.516140887265882e+000,-1.919392160217173e-001,-1.120108669836896e+000,-2.515878756646086e+000,-3.076170333164529e+000,-1.797185166662550e+000,1.390885951610540e+000,7.806924264262292e-001,1.633017972430269e-001,2.131694046906663e-001,-2.598336207501924e-001,8.697197802893900e-002,4.769583220992190e-001,1.369599457523396e+000,4.639597344757722e-001,5.263352003222088e-001,2.875446171194406e-001,-1.311528309352738e+000,2.340106899151756e-001,3.631727519460445e-001,4.873569417347602e-001,-8.899791629714446e-001,1.887192634845177e-001,1.099202097415868e-001,-4.821182936966617e-001,-5.998398066639834e-003,1.093057971373203e-001,-1.844053640023127e-001,2.691856494414127e-001,6.945786104884903e-002,-2.211706007857416e-002,7.989432592981778e-003,1.512152815352521e-001,-2.468894981546348e-002,6.549903972638775e-002,9.874066485950425e-002,2.943916559949988e-001,8.504663482964797e-002,1.014046067981243e-001,3.195667380153820e-001,5.460522802538156e-001,2.970189139912955e-001,3.618021977859791e-001,2.693603470687402e-001,2.585917707843692e-001,1.752263615195736e-001,2.302536416579579e-002,8.879558039416845e-002,7.068320522233086e-002,-4.769660596615535e-002,-1.697850448238380e-001,-6.573597793396140e-002,5.717198475890608e-002,2.719719067513078e-001,5.272862237012246e-002,-7.873381590489337e-001,-1.547066869562999e-001,-1.557172655080701e-001,-1.046749292401018e-001,3.796396958654983e-002,7.977835321311928e-003,5.099589198763758e-002,3.730494566675188e-001,3.522234306485726e-001,-1.950957012819266e+000,-4.059260680586280e-001,-2.134029741409006e-001,-4.922883347108036e-001,-1.633737428042616e-001,-6.342067080249009e-002,-7.023361680519419e-001,-3.213024385009340e-002,1.020072209240004e+001,5.232412264972542e+000,2.829354007245565e+000,2.379533340970972e+000,1.718437002947798e+000,1.194453423054474e+000,-5.528055522456796e-002,1.874560004983177e+000,-9.439259170814447e-001,5.370203801576961e+000,3.526280449969216e+000,-8.324009620823391e-001,3.122969400904653e-002,-2.042125825494683e-001,-2.141669701092164e-001,-3.939953614905055e-001,-6.770461567468934e-002,6.903394485232300e+000,-2.454362530056603e-001,-3.402039924042254e-001,1.590231333075457e+000,-9.473295917983489e-003,-1.575599719645567e+000,-2.271233914486936e-001,-3.431027213916121e-002,-3.437721739100052e-001,1.277922787040961e+000,7.583697796438979e-002,1.207243694958792e-001,1.003409564393670e+000,-3.605681362728697e-001,-1.076994321440626e+000,-1.069593873606752e-001,-3.220566510260304e-001,1.721506929791695e+000,8.364273543587929e+000,-1.929069481171931e-001,-9.961744750866015e-002,-7.970143625249621e-001,-8.970327865366700e-001,-2.369117824748653e-001,-1.253495950821450e+000,-4.731421067209212e-001,-1.097275260036550e-001,1.684098096822138e+000,-3.071205966218953e-001,-2.902387486914732e+000,-1.274678718633897e+000,4.085968535234417e-001,-8.162771838399707e-001,-4.671956655015541e-001,1.601462245461031e+000,1.212380703670354e-001,2.319446371252282e-002,1.102147280990660e-001,1.000280911316736e+000,1.987134114025028e-002,-2.066784874032122e-001,-4.442423387900457e-001,1.438996927915872e-002,-5.225248145075943e-002,-3.202785405181973e-001,-1.682150835267773e-001,-8.479420649937852e-002,-1.523868809876559e-001,-2.572379682202586e-002,-2.061247079938252e-001,-4.429691724107876e-001,-5.163422521624943e-001,-3.308329379984834e-001,-1.381014414839210e-001,-3.800081556331091e-001,-3.981751094576687e-001,-2.650068022572809e-001,6.653164631449557e-002,1.238614487470994e-001,-4.058519726519392e-002,-1.254841950618413e-001,-1.443083953665852e-001,-9.945096589944860e-001,-1.760810599977115e+000,-1.245313174196669e+000,1.386618228192441e-001,-2.420505234051297e-001,-1.865827058979732e+000,-3.729000590848592e-001,-4.089585295308185e-001,1.437641843534460e-001,1.333126784944115e+000,3.773841604943884e+001,-1.775762087514099e+000,1.295799191263846e+002,-1.637098531835532e+001,1.130867439583552e-001,3.242667338075537e+000,2.769589937584105e-001,-2.427611539796505e-001,6.465450097257401e+000,1.329720996277607e-001,2.576141728288231e+000,-6.825560326333211e+000,-2.910226162209507e-002,3.468245390873184e+000,-1.664820229966207e-001,-6.290774436951575e-002,1.641087747058835e+000,-6.362366265717634e-003,8.069761783604620e-001,-1.542335623662323e-001,-1.631004548565694e+000,-1.680082241919960e+000,-2.451932740962772e-001,7.045737189760149e+000,4.722341674344036e+000,1.735061421380040e+000,-3.198955112127109e-001,1.983470202173972e+000,-9.627206142156325e-001,2.004676929968787e+000,-1.997207475181801e-001,-1.143485826868254e-001,4.410452441181516e+000,3.079168785284302e+000,1.051530307049100e+000,-1.368227542239329e-001,-4.959448476438443e-001,1.402432347884195e+000,1.203935100814777e+000,-8.040197351249517e-002,-4.009663919331549e-002,3.420991486481750e-001,-6.467719747183766e-002,5.748755162108649e+000,-8.190649314573764e-002,-4.062217058807053e-001,-3.356618098762442e+000,1.522709727916419e+000,1.362504054184681e+000,5.675609618635880e+000,-5.170325709914264e-001,2.800127813484656e+000,1.017393574562013e+000,-9.962419061372161e-001,2.005497945080641e+000,-2.148918770815808e+000,5.907048017434347e+000,-8.514540227786810e-001,3.389006294612402e+001,3.703515403005681e+001,-2.291799742065310e-001,-3.537283232024454e-001,-5.146786072780261e-002,4.859409113492637e-002,2.273287735252697e-001,-5.222803824288852e-001,-2.260239095216778e+000,-3.006282343181237e-001,-8.829668533741077e-002,4.532132942758052e-002,-2.654895615937429e-001,1.031027449871998e-001,-2.958480749028773e-001,-6.692046257567318e-001,-5.729328359093265e-002,2.710643653111804e-001,-1.638565571777981e-001,6.572778756212892e-002,2.657483965226362e-001,-1.204665436551143e-002,-4.314314734931656e-001,1.021467476166706e+000,-1.019160634213831e-001,1.102598019399169e-001,1.890643360412772e-001,1.625506425532861e-001,4.513530982972066e-001,-2.231289666751078e-001,3.869625743725708e-001,1.734140138859619e-003,5.123443952372501e-004,-1.707537095995453e-001,1.675796573350207e-002,9.018964735330802e-002,1.162573771429633e-001,1.502678684606155e-001,-1.038310752883512e-001,-7.504676230464377e-002,-1.109110646780781e-001,-5.992555236136051e-003,-1.497687030813487e-001,-3.013373896503403e-001,-2.893995509654703e-001,-2.048147952245006e-001,4.549771530481468e-002,-1.093593092479723e-001,6.740956007180124e-002,-7.062715606347877e-002,-2.094142073957469e-002,-1.446232290408168e-001,-5.967201709306909e-002,8.472093607150322e-002,-4.544215852236277e-002,5.453263938189354e-003,-8.605480018427369e-002,2.352476256238285e-001,2.524872738035258e-001,-2.720717798392911e-002,9.586719791438926e-002,-5.401775623170601e-002,2.376243665147999e-001,2.074033889896746e-001,5.370032911243409e-002,1.162576955312569e-001,1.022120231524959e-001,3.999899148760965e-001,-7.991866265819235e-002,4.203362891726710e-003,3.644582710635633e-001,1.630130654032086e-001,3.175587609313198e-001,2.172729114586981e-001,1.490447729349210e-001,-2.075191742790061e-002,2.828034938102893e-001,3.810978749201843e-001,1.092663668717546e-001,2.694077306406773e-001,1.329606726634994e-001,2.631471465272566e-001,3.947496245878041e-001,1.128053716294546e-001,1.941890216042408e-001,2.424596696366856e-001,2.721248565447056e-001,1.605023963533652e-001,2.573048665947716e-001,5.912446989519868e-001,3.433218231816548e-001,5.974548037244469e-001,1.205477963180247e+000,1.529101702578265e-001,2.589575124287162e-001,4.745328510264012e-001,8.307844926805148e-001,4.328735612001028e-001,-6.013722473016262e-003,5.759718037131379e-001,3.789086605361350e-001,7.292442889739977e-001,5.263069085619897e-001,1.253146033058195e-001,8.766054186887670e-002,-4.228076704344055e-002,-3.552087528690358e-002,-4.518322774648029e-002,1.500403942386039e-001,1.483120455622524e-002,2.623878064909461e-001,2.115069816271259e-001,-7.978104454573301e-002,5.531631414405085e-002,-3.496549569481497e-003,1.795607641946014e-001,1.611211103557589e-001,1.902503882051017e-001,1.795904274281728e-003,1.020540692867750e-002,1.833944285887795e-001,-3.072999502386253e-002,1.773747483444556e-001,1.921739079581548e-001,9.152812078401558e-003,2.547188377281699e-002,2.691714799911101e-001,1.820960156908106e-001,-7.443659442213262e-002,-1.304186719361913e-001,9.108563448856738e-002,-6.334093561944355e-002,-1.116834882847105e-001,2.789612086206091e-002,-5.445395797102061e-002,8.087581574109623e-002,6.593396332183962e-002,6.710727914202821e-002,5.342964156759968e-002,1.157009612897762e-001,2.490977582644284e-001,1.551632049366594e-001,2.481173358031244e-001,5.956476143015652e-002,-2.519362102709439e-002,1.332375826801991e-001,-1.839172126854954e-002,1.596230748427855e-001,3.604657523796435e-001,-2.374532952135651e-001,-1.719027446118307e-002,2.620379849624170e-001,1.094488038576640e-001,-6.170037630759452e-002,5.642300254826337e-002,2.906175289175900e-001,9.626032523556359e-002,9.725219064242328e-002,2.731764720376640e-001,2.122702955054866e-001,5.821422856814787e-002,2.001464216670965e-001,9.164690850923377e-002,1.888584753579766e-001,1.502608296964491e-001,1.095824610676367e-001,4.253274497617980e-001,2.672163715068561e-001,3.563595795956705e-001,2.295474354934699e-001,2.280383098403639e-001,2.649488087882225e-001,2.039920605489562e-002,2.479376858410656e-001,2.930144385051072e-001,1.696205696922371e-001,3.441536394010636e-001,6.221320288702114e-002,3.715794691837384e-001,2.079993088490734e-001,8.486383051288676e-002,3.464052948703812e-002,3.764087778875734e-001,1.622432644501175e-001,2.992789614241200e-001,2.577235874882402e-002,-1.446935843622631e-001,9.853297240253946e-002,2.848146967252552e-002,-5.448201045459044e-002,4.346036822871337e-001,2.159225046585154e-001,2.725749815420183e-001,2.931586995794041e-001,-1.269987375189699e-002,-1.036054709219194e-001,1.471698487520678e-001,-2.114578301928616e-001,-1.908582304657748e-002,1.740165277289638e-001,-4.600121183550848e-002,-6.241625467319188e-002,1.426878009383392e-001,-7.181053629702153e-002,3.560079409634898e-001,4.972668038015525e-001,2.922960948051962e-001,1.463713589923791e-001,8.372730330927790e-002,2.168986033729578e-001,1.504511956425195e-001,1.955580584886711e-001,-1.767755816155572e-001,2.292052508377410e-002,2.466792486554894e-004,-6.178509139607357e-002,2.284076534750578e-002,7.184175460344233e-003,1.016299336743075e-002,-1.522147600928529e-003,1.172487944524941e-001,1.043473780898072e-001,-3.235101883179223e-002,5.857385905825203e-002,7.970718446480087e-002,1.326739471410644e-002,6.076507160612443e-003,3.669725161431398e-002,1.357118595060841e-001,3.651618890087573e-002,9.952463448802899e-002,1.806032988934399e-001,-7.997121891296101e-003,-3.742628857042695e-001,1.210019284626728e-001,1.644034529791892e+000,1.407750252160554e-003,4.105243884873875e-002,-1.878720444021296e-001,-9.115938870091858e-002,1.244448231727772e+000,5.704938978933324e-001,2.033770701608413e-001,2.758385070831386e-001,3.338001283419165e-001,-2.669795867241779e-002,-3.108141628275890e-001,1.269332788012961e-001,6.770274358556563e-002,-2.327692860576781e-001,9.246776217172605e-002,2.323224571817907e-002,-1.223605886585231e-001,4.757212013861953e-002,-3.620670309080887e-002,-1.049803723042664e-001,1.101269361611245e-002,5.423798892419678e-002,-2.068730249106006e-001,9.804059592174464e-001,1.038284183021181e-001,-2.187532462499227e-001,2.747645177537111e-001,-4.403320446958781e-002,-2.050833519183390e-001,-3.109916318266827e-001,5.162667536796412e-002,-2.282380476663894e-001,-1.721727219706332e-001,-2.837888009688799e-001,2.354872629157687e-002,-2.811558598415873e-001,-2.190809256215008e-001,-4.171547614724793e-001,-3.256517571572032e-001,-8.864323375462785e-003,-4.173726540980643e-002,-2.889503661875555e-001,-9.173740255230585e-002,-3.670414419302364e-001,1.831658408798589e-002,-3.993642971215078e-001,-1.306848563007892e+000,3.104577487053914e-002,-1.869332774524243e-001,-3.520246705790710e-002,-1.968854252811959e-001,3.235132674257716e-002,-1.922074302177419e+000,-1.878124515833097e-001,-1.463398824306600e-001,-1.077818545738997e-001,-9.818715328144671e-002,-3.997939298135088e-001,-4.173399466700763e-001,-2.510964503961989e-001,-8.841486859666490e-001,7.475252269518715e-001,-2.534420992102096e-001,4.986898024476759e-001,-7.312094296521610e-001,-9.389112125069202e-001,9.335547436606372e-001,-1.182488189192796e+000,-6.848119272473904e-002,4.389215024771738e-002,6.566906696645138e-002,6.716159918213011e-002,3.282893473886550e-002,-3.445686910949693e-001,2.488717756087294e-002,-3.158561349797002e-001,1.585899823970455e+000,1.104370781136919e-001,-2.515702256778447e-001,-1.650368149342287e-001,-5.643344911809034e-001,-2.959067880822817e-001,-2.419448596216098e-001,-1.890961797703900e-001,-2.489882088171080e-002,-1.714466173858454e-001,5.090871560952646e-002,-3.378253763190620e-002,-2.515796824734568e-001,9.276641565671787e-002,-5.659238294780883e-002,-1.135504637446344e-001,-8.716031923163921e-002,-3.182101919678548e-002,-1.193920528747233e-001,-1.879664874693156e-001,-7.708403881587360e-001,-1.362021416679206e+000,-7.707228275136190e-001,-2.919305994473163e-001,-4.084755496906889e-001,-3.791607225394151e-001,-2.540237653209324e-001,-1.268856279829523e-001,4.054927147858772e+000,-1.029567370793520e+000,1.825517094940242e-001,-1.882985134415082e-001,1.356006358691121e+000,1.074656949839277e-001,-1.983292477450551e-003,1.642882036829436e-001,5.655868624428784e-001,9.540144603944994e-002,9.244350660710335e-001,2.181717534284724e-002,1.454086485147127e-001,1.267268019391331e-001,6.896069000590746e-002,1.331607046572859e-002,2.964415623801289e-001,-2.819486691657370e-002,1.744694434802260e-001,4.150220256279227e-001,3.794577047130116e-001,2.098609609545596e-001,6.599098826362346e-002,2.232753777587682e-001,1.912991027582031e-001,2.091773296076050e-001,4.549884931177698e-001,-1.851584933705836e-001,3.913425499365203e-001,4.528313918178107e-001,6.480973121559276e-001,-2.384089840085100e-001,1.353705770996603e-001,4.137055700034033e-001,2.816902003893042e-001,-2.487952208972255e-001,2.288016727314222e-001,-2.521164242837374e-001,-2.641855045421187e-001,-6.847445426541252e-002,-2.298650533362749e-001,-2.197060935970596e-001,-3.684344570606873e-001,-3.640202652988747e-001,-6.660961287735694e-002,4.481127873173472e-001,-3.416646692934657e-001,3.790368247210115e-001,-4.651776902540513e-001,-1.612849068077984e-001,-1.882270237894547e-001,-2.652671046740058e-001,1.063547300021364e+000,1.289463528087210e+000,-1.381385606368659e-001,-5.654604059231984e-001,-4.311932070526087e-001,-5.772681018022829e-001,2.060684478679375e+000,-7.406265810251422e-001,-5.636697581234516e-001,-8.207356446917759e-001,-2.127232276303122e-001,-2.476223349267440e-001,1.012377100598911e-001,9.491275987597992e-003,4.458556335971866e-001,2.995178424048169e-002,1.327292682782418e-001,9.555374325992190e-002,1.521464118680100e-001,9.634740708131993e-002,9.892248898552144e-001,8.523020616667658e-001,1.509914933602853e-001,4.396554078254777e-002,-4.654777087043829e-002,4.272432114919564e-002,1.116935297174354e-001,5.589552564790926e-002,7.294310854112281e-002,1.017326175969219e-003,-5.537331886124834e-002,-2.227982655484729e-002,6.832220804468461e-002,-4.514121876680241e-002,9.368356075456855e-002,-4.674913218037953e-002,-2.339385500417786e-001,-2.829612848831395e-001,-1.683101291357626e-001,-1.096651707733850e-001,-7.243558129988228e-001,-3.897892367749986e-002,-3.286809762707397e-001,2.663148909459185e-001,1.013243086046924e+000,4.276967109384866e-001,1.307006702007571e-001,-5.617210990701367e-002,1.826737129419466e+000,2.424714390550360e-001,-5.200570883213938e-002,-2.474601784939181e-001,-5.437736273601375e-001,-5.965935747062301e-001,-3.673170023261175e-001,-4.194884816737338e-002,-1.544454094490488e-001,-8.382502118712305e-002,8.475243795475718e-001,-7.390525841779981e-001,-8.129814961402522e-001,1.420673976882377e+000,-1.300743383179274e-001,2.525317249921444e-001,3.913718959537654e-001,-2.662397381684058e-001,-2.060951748999820e-004,-3.046328838827512e-001,-1.316403912474047e-001,6.512028467250437e-002,6.630193270909558e-001,-2.149101617652750e-002,7.047027490236911e-001,-3.193924272411272e-001,-1.399112017053955e+000,1.479770540355379e-001,1.000459091167626e-001,-1.085969225364001e+000,1.509874531622210e-001,-4.899575438423454e-002,3.700562114353763e-001,1.350637347063052e-001,1.877161837076842e-001,1.179873728063270e-001,1.448334925115745e+000,1.081333487320728e+000,1.998748325513096e-001,2.283659210391820e-001,-1.207580776512204e-001,3.167806721035706e-001,4.299734831486616e-001,-1.937546741015215e-001,5.021236113126115e-001,-1.339864928781953e-001,1.634173802511717e+000,5.008232911326051e-002,3.451089801373453e-001,4.010548419826283e-001,-2.843861230739501e-002,-2.630797463636113e+000,4.633613929391173e-001,6.908824438028027e-001,3.135309727627315e-001,1.134472263895526e+000,3.036626586294133e-001,-7.291902040524174e+000,1.389924116897895e-001,3.880986387216783e-001,2.091669485263294e+000,2.108314544143616e+000,2.326667793351875e-001,3.111351160401402e-001,4.295542907929833e-002,-1.086940267220276e-001,-5.312879945165608e+000,-1.413537889945165e-001,2.162363085535234e-002,1.021357313688805e+000,2.539606697335844e-001,2.848179635487921e-001,-6.306222219565758e-001,-2.279063334544592e-003,2.991415920303339e-001,5.810113719608052e-001,-3.506734536712515e-002,2.993286196108689e-001,2.229291331397035e-001,2.743919959065881e-002,2.056180366842783e-001,1.010048036181439e-001,5.523799931168387e-002,-2.200213099624732e-001,1.118971556331176e-001,1.678170570491947e-001,-1.814123392452047e-002,1.673319202722207e+000,1.673273379830894e-002,3.508783985087260e-002,2.546233250465037e-002,1.335984174834809e-001,-7.230489208911595e-001,8.353684636063796e-002,-1.544770456389054e-001,-7.157166709408075e-001,1.377925033233390e-001,-6.056283180840121e-002,2.642885237733911e-001,-1.277823158678315e-001,-2.336858978054342e+000,-4.211862729645863e+000,-1.655056921808152e+000,-1.232059241106468e+000,2.413157381976363e+000,5.185976212022164e-002,-1.157710229845877e-001,2.407894002926149e-001,-6.314109659504836e-001,-2.988843779966680e-001,-3.350480365107886e-002,1.146615336147937e+000,8.184887889476116e-001,7.824468838981449e-001,-2.035934848319207e+000,1.538409832604161e-001,8.964206826471423e-001,-1.502305925813454e+000,-9.671911641939509e-001,-1.058120308020014e+001,-3.637223015814661e-002,6.933338820028370e+000,4.291921284744429e+000,1.976859223897204e+000,2.017472662292447e+000,4.038411335176606e+000,2.399747877938242e+000,2.281846738714972e+000,4.631516453496415e-001,1.333439135845153e+000,1.251482998411476e+000,3.961048958575478e-001,1.546096665564722e+000,3.102117982275480e+000,3.153590411143352e+000,2.787984114324714e+000,-9.346849312391975e-001,2.914663242386718e+000,-8.711000022511792e-001,1.199492140861322e-001,1.052936600106219e-001,1.407363262424081e+000,2.065684165077012e-001,-7.751607750879337e-002,7.206879451418246e+000,4.823535565951005e-001,6.875061525803647e-001,-4.173134385642586e-001,-1.860908418240439e+000,-4.977366392488577e+000,7.437088102119899e-003,4.806851093398270e-001,3.814328533085264e+000,1.744951519892517e-001,1.207776722559789e-002,-2.240327851067980e+000,1.167425610957421e-001,4.066583772869685e-001,1.747618114596589e-001,7.148742117623507e+000,8.124181467448563e-002,2.131526468114450e+000,-9.382112334249908e-001,1.385123469544125e+003,-4.953724545865401e-001,-7.604925407261092e-001,-1.431965295844692e-001,6.179388735573908e-002,-1.530333822078425e-002,-7.809238717804663e-002,-6.635232250486608e-001,-8.700142192775444e-003,-2.818544251997263e-001,1.136812511223261e+000,-1.782236828384715e-001,1.983613959353840e-002,-3.429836062281349e-001,-3.750416970475032e-001,-9.094180188026326e-001,2.873946999422803e-001,-8.376136644087143e-001,-5.243264508403142e-001,-1.983528136300856e-001,-2.849913328422196e-001,1.845240003036395e-001,-1.963705514308221e-001,-1.611074970341705e-001,-1.052382622247970e-001,-1.862716267791505e-001,-2.750931358723180e-001,-4.252103671703250e-001,2.624652652119511e-001,-2.238442707240770e-001,-1.435482651660316e+000,5.624442002008078e-001,5.732633278778085e-001,4.559535869035213e-001,3.540830897933531e-001,3.704409959140290e-001,3.746318442729593e-001,-3.742344881533457e-001,-5.063202847044002e-001,1.353113415608378e+000,-1.545491568295958e-001,1.104864029219837e+000,8.829056347657998e-001,-1.690599306677031e-001,-4.305970967334199e-002,-4.940589974981612e-001,-2.404495250782631e+000,-9.041079176739647e+000,-4.933538861491179e+000,-9.170443082372910e-002,-1.258813248082963e+000,1.858644641792202e-001,5.543105679193339e-001,1.203190645283892e+000,9.172878655648751e-001,1.232074936927490e+000,1.291194570092211e+000,-2.079315302838211e-001,3.080951532140814e-001,-4.608691124834167e-001,5.454902487521339e-001,1.500141038726003e-001,9.177308477092587e-002,-3.105863680587498e-001,7.842980991302201e-001,1.770440320553774e+000,3.048069966185195e-001,6.825736752539100e-001,-4.147406902699221e-001,1.112860749537641e-001,1.808465612728055e-001,-1.366815409980493e+000,-2.725483980411438e-001,6.538046439793858e-002,-2.731661741043158e-001,3.796840858694573e-001,9.697943664068122e-002,2.007596752824097e-001,-4.374682220853588e-001,9.469793719033253e-001,-6.772514407609494e-002,4.798923551290586e-001,1.558282629273794e-001,-5.376066409780749e-002,-1.740974574902344e-001,4.327462339005320e-001,-1.252190056113972e-001,2.752966357389354e+000,-6.509789851332280e-002,3.773610155407426e-001,-8.026935970400412e-001,2.590982430663547e-001,3.930480124382154e-001,1.050453260297397e-001,3.259225098904603e-001,8.083576830969820e-001,4.750584204470613e-001,-7.483932621666191e-001,-3.884019376006332e-002,1.130368884422062e+000,1.376150044464333e+000,-3.007481988802412e-001,-5.154015958228752e-001,-5.095199891568623e-002,1.272515056469044e-001,1.396358282242813e-001,1.152185587462389e-001,3.738943883578742e-002,2.839209657861480e-001,1.157415904089846e-002,-3.192377165813427e-001,-1.747546312408084e-001,6.263827727793548e-003,1.029040441711940e-001,2.152768581741838e-001,1.754943045168383e-001,1.038933415553014e-001,-1.908028981955008e-001,2.297281087547726e-002,1.428650519689011e-001,2.343650775553814e-001,1.414506827198884e-001,-1.804644544865817e-002,6.073246486756753e-002,-9.327246587259061e-002,5.156022694074045e-002,5.934065407351286e-002,2.397451245859735e-002,8.572351123623331e-003,9.856184209037346e-002,-2.090661788602151e-001,4.664142600853474e-001,7.288058903770182e-002,4.687371069468449e-001,2.456338684967626e-001,5.340154535106182e-002,-4.333095238945877e-002,4.890452235550726e-001,5.648595066177744e-001,4.062158017096708e-001,3.679605079433306e-001,3.187141212057857e-001,7.247467713600139e-001,2.710591481847501e-001,7.956673020363760e-002,3.579283281661808e-002,-3.758019837458479e-003,-5.381190997067002e-001,1.045536024937178e-001,2.200009691453970e-001,-8.969185686139304e-001,-1.846750720202287e+000,-4.375994820462170e-001,-8.839821399094099e-002,-1.551394687319258e-003,-3.473036260243486e-001,-4.397791788707332e-001,-2.492101927958428e-001,-2.983657685383608e-001,7.116848896532548e-001,1.047917828402479e+000,4.314076988388633e+000,1.695610072865001e-001,-3.033018932491022e-002,-1.146102616143353e-001,5.950954831518187e-002,-2.664201862092721e-001,-1.699127540251765e-001,-1.833508677469059e+000,-1.332208170540390e+000,-1.620964483819442e-001,-9.810078725643211e-002,-1.650494965413143e-001,-4.640994630815727e-001,-3.904837635898074e-002,-6.400944437999474e-002,-6.635277735903556e-001,-5.423272023073056e-001,-1.750130159976591e-001,-1.444788313345418e+000,-1.056478399171448e+000,-2.573585640615023e-001,-2.103631016295610e-001,-1.752945505267809e-001,-2.235462859308599e-001,-2.297800443637927e-001,-5.210280749883183e-001,-1.066290996813052e-001,-2.069312548910809e-001,-5.399731386076775e-001,-4.814461961821274e-001,-2.585205179033157e-001,-7.879901438383830e-001,-3.109453210575094e-001,1.419796747064117e+000,5.214600014873007e+001,3.096335599752337e+000,4.925175501720659e+001,-1.098526665468565e+000,-3.079238346955685e-001,-1.151030980611910e+001,8.262247174695785e-002,2.028478949956736e-001,6.063585832313607e-001,6.024434348635906e-001,7.804477849026802e-003,-3.157566317709349e-001,4.234315928947051e-002,-2.657415061008969e-001,1.779984518863021e-001,2.435946419853531e-002,7.791572860786422e-002,2.559330732419537e-001,-3.209061256034586e-002,-1.235816056528745e-001,-1.319248851097858e-001,6.614144215140508e-002,-1.132141122830757e-001,-1.687770875978948e-001,-1.529069751128109e-001,-3.938627360192964e-002,3.718282136043566e-002,5.334779653342656e-002,-2.527602293096896e-002,5.833560436422489e-002,1.132353355204819e-001,-4.601364227958273e-002,1.114823191265095e-001,-2.088698737506544e-001,-4.860560078921033e-002,5.415941480085109e-004,1.944277578004992e-001,2.633498610735138e-002,-4.053853607733678e-002,-1.245443738040579e-001,1.240373951384160e-001,2.189979316062395e-002,-4.767477249438557e-001,-5.110335792742620e-001,-5.591804670177786e-001,-6.873473069517371e-001,-1.718170433481006e-001,-3.674190944568537e-001,-2.394147586002400e-001,2.350648114680162e-001,-1.548319105806018e-002,2.310803497163866e-001,2.186982915239930e-001,-1.927571444626812e-001,9.504906039110947e-002,-8.583209351561312e-002,1.413121854271439e-001,2.290044381263931e-001,-5.398264618029836e-002,-4.857649883653389e-002,2.109809299540308e-001,8.965236412470980e-002,2.035744339785190e-001,1.022215395836682e-001,2.550869296140346e-001,-1.590856285296561e-002,-4.469676791451963e-002,-4.104690811780881e-002,1.579982639544450e-001,-7.718119003745606e-002,1.288191242476641e-001,2.559069794892626e-001,-4.803006240110969e-002,-5.250974020661817e-002,3.432402979890750e-002,3.090800967559423e-001,1.544855149708336e-002,5.073703881250169e-003,2.314583871929858e-002,2.256997723664382e-001,6.460019282574903e-001,1.282359808323012e-002,3.118102240619810e-002,3.712271003821300e-001,3.705465263964249e-001,7.585903894903970e-002,1.862927499085680e-001,8.592529115166431e-002,3.297965334712564e-001,2.512882451370761e-001,2.637465658957648e-001,1.790479410055947e-001,2.770954753027445e-001,1.819394802137754e-001,2.911517032594443e-001,5.233139240215003e-001,3.940035697287792e-002,3.372417583830026e-001,2.806225467150929e-001,4.939486506243281e-002,3.341608014743726e-001,1.776745513153206e-001,2.137865635129794e-001,2.458503187249958e-001,4.035554938409726e-001,-1.313604626363793e+000,8.436024277143203e-003,-1.586446358268646e-001,6.320669787621177e-003,-7.234407151519229e-002,-8.537439815430391e-002,-1.511685782046012e-001,1.773783409469195e-001,1.289237499255244e-001,1.245989761446905e-001,-3.091292633398107e-002,-7.515436834259612e-002,1.776859851087050e-001,2.389263858923346e-001,1.917462084461262e-002,1.427485072042976e-001,2.796989277879473e-001,3.125679213472268e-001,2.137847859279744e-001,1.304417900337679e-001,4.326857671961928e-002,1.475930427332868e-001,-2.393023605321574e-002,1.879453858936337e-001,-2.011990235869510e-002,-2.010836147327296e-002,-7.955237536166561e-002,-8.715251724650106e-003,7.813849090912813e-002,-1.323678430914254e+000,7.931271306551424e-001,-8.871177727421421e-001,-3.621790436194506e-001,7.526226155603406e-001,-1.309089650255128e+000,-5.771089846626286e-001,4.764560254927033e-001,-8.690107327189862e-001,4.329745129847379e-001,3.541985510024306e+000,2.966877946342009e-001,-1.045447171641877e+000,-4.957620758319184e-001,-4.024971050233239e-001,-6.452727614964628e-001,4.689846117191481e-001,-8.314452788931869e-001};
const float BIASVECTOR[] ={3.086639907038523e-001,-1.924436784969417e-001,2.722899204372785e-001,3.929737227747810e-001,-5.446677765137720e-001,1.370587726871583e-001,1.205836371278268e-001,-8.267386068566428e-002,-5.138556507607203e-002,-2.458998322283666e-001,-1.870347784285037e+000,-1.074641963774672e-001,1.941143759686664e-001,2.275810609344302e-001,-1.621033204028056e-001,3.174005091353420e-001,-3.045565274489682e-001,2.544583944917375e-001,-2.774831384039785e-001};
